<?xml version="1.0"?>
<opencv_storage>
<my_svm type_id="opencv-ml-svm">
  <svm_type>C_SVC</svm_type>
  <kernel><type>LINEAR</type></kernel>
  <C>5.0000000000000000e-001</C>
  <term_criteria><epsilon>1.1920928955078125e-007</epsilon>
    <iterations>1000</iterations></term_criteria>
  <var_all>576</var_all>
  <var_count>576</var_count>
  <class_count>2</class_count>
  <class_labels type_id="opencv-matrix">
    <rows>1</rows>
    <cols>2</cols>
    <dt>i</dt>
    <data>
      0 1</data></class_labels>
  <sv_total>1</sv_total>
  <support_vectors>
    <_>
      -2.59835497e-002 -2.51211226e-003 1.35221099e-002 -2.36662820e-001
      -1.19626403e-001 3.70026156e-002 2.37964671e-002 3.04528624e-002
      1.02457022e-002 5.11521883e-002 2.66672790e-001 3.94152254e-002
      -4.86519873e-001 -1.53641820e-001 2.76094973e-001 7.26298094e-002
      -4.04776447e-002 -7.58187547e-002 2.78299507e-002 -1.30751908e-001
      -2.59982556e-001 -1.97290897e-001 4.74259734e-001 3.82468343e-001
      1.89597145e-001 6.81140199e-002 6.28388301e-002 -6.24766462e-002
      -7.76788443e-002 -3.16595137e-001 -2.01455891e-001 4.69982810e-002
      1.21760309e-001 1.81009918e-001 9.58736707e-003 7.28436112e-002
      6.51368126e-002 9.86215286e-003 8.63826871e-002 -2.59752750e-001
      -5.31771719e-001 -2.35528633e-001 2.49980185e-002 5.78295812e-002
      7.94834495e-002 5.39043128e-001 5.09407580e-001 1.55884713e-001
      -5.10736883e-001 -2.42928624e-001 7.92156719e-003 3.14670235e-001
      2.94578969e-002 2.26813659e-001 9.43695679e-002 -4.89734918e-001
      -9.18612719e-001 -4.77533907e-001 4.67161179e-001 5.57493806e-001
      3.55276257e-001 -2.51532495e-002 2.51142740e-001 -2.16705412e-001
      -2.22759441e-001 -1.19400434e-001 -2.17956360e-002 1.71901643e-001
      -1.70728654e-001 5.28659225e-002 -2.47732371e-001 -1.75397083e-001
      2.18353346e-001 2.91563183e-001 1.21840753e-001 -1.41209856e-001
      -3.80410612e-001 -3.27031761e-001 -8.57081339e-002
      -7.75635708e-003 4.69379276e-002 2.77798891e-001 5.27521908e-001
      1.33043796e-001 -4.44292843e-001 -5.13412416e-001 -4.20454144e-001
      3.45252424e-001 1.31324111e-002 9.36292931e-002 -4.08617318e-001
      -5.39133191e-001 -2.54337072e-001 -1.03954993e-001 1.80256352e-001
      9.36268643e-002 -6.49792552e-002 -4.55218881e-001 -3.34342092e-001
      -1.87120125e-001 -1.94060564e-001 9.57527086e-002 4.39195424e-001
      -1.77386463e-001 -4.72131103e-001 -5.79416811e-001
      -5.31989813e-001 -2.64360845e-001 -5.47176832e-003 9.73407403e-002
      8.73530433e-002 2.36307234e-002 -5.17167002e-002 -1.96866378e-001
      4.60453518e-003 4.14087512e-002 1.97445545e-002 6.67634755e-002
      1.20829239e-001 1.16843231e-001 -2.03736961e-001 -6.25288069e-001
      -5.63097060e-001 1.80151209e-001 1.81746691e-001 2.53022071e-002
      -1.29137516e-001 -4.09790814e-001 1.68401107e-001 2.33450741e-001
      -2.45474535e-003 -8.48125145e-002 -1.45090997e-001 2.98560075e-002
      -8.17504227e-002 -6.47989362e-002 -3.02974105e-001
      -2.53787816e-001 -3.72893393e-001 1.30351499e-001 5.75217485e-001
      3.61714661e-002 -1.70237850e-002 -4.60713059e-002 -1.59988999e-002
      -1.21424846e-001 -2.17504472e-001 -1.56042516e-001 1.39709711e-001
      1.56740874e-001 1.15058452e-001 8.79915655e-002 6.53747693e-002
      2.42616422e-002 5.52611277e-002 -5.41207135e-001 -3.93383026e-001
      -1.54121205e-001 5.60805462e-002 3.32759500e-001 1.14011936e-001
      1.19088255e-001 1.86820894e-001 2.32439578e-001 -2.88600288e-002
      -1.66850369e-002 9.05981883e-002 -4.51572202e-002 5.27298823e-003
      8.52552615e-003 2.33917162e-001 1.39151603e-001 1.09949708e-001
      9.01111308e-003 2.86456291e-002 3.96311805e-002 -1.08219132e-001
      -7.50143006e-002 -1.04393430e-001 1.24420330e-001 9.98298731e-003
      -3.89433682e-001 -4.25582260e-001 -1.60726700e-002 3.74619573e-001
      1.99831277e-001 5.33935241e-003 7.15790018e-002 1.43885925e-001
      -2.18552083e-001 -3.50816965e-001 6.12405856e-005 -4.51128244e-001
      7.84695521e-002 -2.32175738e-001 1.00182012e-001 4.34259931e-003
      -3.05091232e-001 1.82906508e-001 3.82597566e-001 2.20547274e-001
      1.27303526e-001 5.35420179e-001 -3.49833250e-001 -5.35629168e-002
      1.02549858e-001 -7.80379921e-002 2.94361353e-001 1.53056309e-001
      -5.09109255e-003 -1.73961714e-001 -8.31546038e-002
      -4.67415750e-001 -2.59352326e-001 -5.06501235e-002 9.57377180e-002
      -1.85906872e-001 -3.69589806e-001 -2.21951697e-002 5.11370718e-001
      2.82755226e-001 2.66842663e-001 -2.37331510e-001 -4.12055761e-001
      -1.96742862e-001 -2.61067778e-001 -3.89543265e-001 1.15052715e-001
      -2.74542183e-001 -2.40878444e-002 -5.35587430e-001
      -6.57974601e-001 -5.96885324e-001 -3.58749509e-001
      -2.65599251e-001 -1.74310371e-001 -2.93161091e-003
      -2.24514186e-001 1.85363263e-001 -3.44584048e-001 -2.06181005e-001
      -3.63056660e-001 -5.35432041e-001 -1.50122233e-002 4.69533540e-002
      6.25958294e-002 -2.93270111e-001 -3.52787375e-001 -1.85517460e-001
      9.05377418e-002 -1.23864315e-001 -1.73241064e-001 -8.07986334e-002
      -3.18051368e-001 -8.68467838e-002 1.18064277e-001 2.83367276e-001
      4.38181281e-001 3.84866842e-003 -1.12075517e-002 -5.56128621e-002
      -1.62015215e-001 -4.00823087e-001 -4.01139736e-001
      -6.48089230e-001 -3.48940134e-001 4.19946700e-001 1.96925238e-001
      1.96961667e-002 -4.72871996e-002 -1.40652180e-001 -8.54425877e-002
      -3.71818282e-002 -3.26357126e-001 -6.83565959e-002 3.94108370e-002
      -6.80537671e-002 -2.17133854e-002 -6.73945323e-002 1.60126220e-002
      -5.58901802e-002 -8.18763301e-002 -2.51195550e-001
      -9.58374068e-002 5.93945533e-002 8.32118690e-002 -1.93165317e-002
      2.08699275e-002 8.90954062e-002 1.36054337e-001 4.81688939e-002
      -7.56078809e-002 -6.57417551e-002 -1.43017337e-001
      -4.94656786e-002 9.08452459e-003 1.87521763e-002 1.06267065e-001
      1.53612971e-001 -1.38785401e-002 -4.65305179e-001 -3.24022561e-001
      -3.47226501e-001 1.86893940e-001 8.99110883e-002 5.92166558e-004
      -1.88542321e-001 -2.77393758e-001 8.05934742e-002 5.09968549e-002
      -3.60822938e-002 1.68005243e-001 1.31747931e-001 -1.47107365e-002
      -1.40593886e-001 -1.79857723e-002 -7.93111548e-002
      -3.88910249e-002 -1.51559770e-001 -2.53350824e-001 7.54754320e-002
      -1.14409514e-001 -7.02927262e-002 -6.61385059e-002 1.19816057e-001
      1.47094831e-001 1.81905150e-001 6.87309802e-002 8.73060450e-002
      -2.48348489e-001 -4.40834612e-002 1.08249731e-001 1.31380692e-001
      3.54417115e-001 2.61083931e-001 3.54610622e-001 -2.29710117e-001
      -8.77462149e-001 -8.91692996e-001 1.43299699e-001 4.23306853e-001
      3.13141823e-001 -1.84387527e-002 -2.61394054e-001 8.40496868e-002
      4.28825505e-002 -1.67160779e-001 -2.23231807e-001 -7.38758445e-001
      -1.46094173e-001 -2.88053323e-002 3.81291248e-002 -3.89117002e-001
      -2.56160051e-001 -3.42759669e-001 8.14977512e-002 6.38071418e-001
      -1.88332886e-001 -1.99005708e-001 -1.12235323e-001 3.05525899e-001
      1.83419243e-001 7.29582682e-002 1.25095189e-001 3.55996452e-002
      -1.89356208e-001 -2.57141322e-001 9.31934267e-002 2.28748500e-001
      3.00050706e-001 3.67945790e-001 2.36438900e-001 -6.38942793e-002
      -4.57592309e-001 -8.91692996e-001 -2.31961757e-001 1.49075165e-001
      2.13396385e-001 3.75160247e-001 3.65500182e-001 1.85350344e-001
      5.93201339e-001 -7.48306662e-002 -3.61487776e-001 -7.15814173e-001
      -6.30618393e-001 1.02147482e-001 5.99865019e-002 -9.58474502e-002
      -2.14300901e-001 9.36082751e-002 -6.63984893e-003 -4.66190070e-001
      -4.23889965e-001 -5.84309459e-001 -1.83259144e-001 5.30604571e-002
      6.18946217e-002 8.14081132e-002 5.26653305e-002 -8.58051889e-003
      -2.25335836e-001 -2.76988000e-001 -4.91091497e-002
      -2.60968599e-002 -1.61061421e-001 -2.89544053e-002 2.47552827e-001
      4.04401928e-001 4.32178304e-002 -3.63463163e-001 -4.52022612e-001
      -1.47024468e-001 -3.90243173e-001 -1.05516300e-001
      -1.87059537e-001 -2.63334084e-002 3.41581970e-001 2.75770217e-001
      -3.12864661e-001 -7.22713917e-002 -1.40856609e-001
      -9.09625143e-002 -1.08079173e-001 -2.34357998e-001
      -6.51608929e-002 -3.32822651e-002 -1.78409722e-002
      -1.81832179e-001 -1.24249645e-001 -1.55000791e-001
      -2.12286208e-002 -4.13711481e-002 -1.33703858e-001 5.88249527e-002
      2.59467870e-001 1.52052864e-001 1.25032797e-001 -8.89249966e-002
      -8.70402828e-002 -8.55801031e-002 5.63641370e-004 -1.25916719e-001
      6.62726313e-002 -1.24489971e-001 -4.09471780e-001 -2.80134410e-001
      -2.82037914e-001 -7.98427090e-002 -8.76886174e-002
      -3.66008841e-002 7.92032406e-002 2.03194559e-001 -1.36802986e-001
      -1.18437887e-003 -9.29701030e-002 -1.34063452e-001
      -4.69779409e-002 -1.94353312e-001 5.58051793e-003 2.67963149e-002
      3.16168964e-002 -1.37310043e-001 -1.35085031e-001 2.92578973e-002
      5.91610670e-002 -3.10794637e-002 -5.47204725e-002 1.24880031e-001
      -3.08809102e-001 1.33321807e-001 4.25880253e-001 4.13414031e-001
      2.83946693e-001 -3.32564443e-001 -7.54389837e-002 -5.73752224e-002
      -1.53398499e-001 -3.17584783e-001 -3.76005679e-001
      -2.34226793e-001 -1.63887292e-001 1.83141574e-001 -2.04492956e-001
      -2.83968359e-001 -2.20264420e-001 -3.32637191e-001 2.05827001e-002
      -1.32806957e-001 -4.49610293e-001 -3.63001623e-003
      -2.72336036e-001 -5.76324202e-002 -1.03619754e-001
      -2.16463357e-001 5.98453693e-002 -6.60559235e-005 -2.55490065e-001
      -5.08349180e-001 -3.18737961e-002 8.71464461e-002 7.09190816e-002
      -6.09361492e-002 -1.71483227e-003 3.06170493e-001 2.46425942e-001
      1.49813056e-001 4.42612022e-001 4.06193346e-001 -2.41026327e-001
      -1.77983925e-001 -3.77150834e-001 -8.74059498e-002
      -2.08368078e-001 4.20859978e-002 -3.34538519e-001 4.79481995e-001
      -1.94208011e-001 -4.88907129e-001 -5.86404085e-001
      -7.25785911e-001 -1.59804553e-001 -2.77595907e-001
      -3.14574093e-001 -6.01445258e-001 -3.71622682e-001 1.35118127e-001
      -8.42805654e-002 -2.28629738e-001 -7.75284991e-002 8.72226283e-002
      2.45940745e-001 4.86932248e-002 -3.56543988e-001 -2.99883902e-001
      -1.52851075e-001 -6.46835044e-002 1.78641714e-002 2.83911023e-002
      1.69747934e-001 -1.44941416e-002 -6.92517683e-002 1.74856242e-002
      9.23880786e-002 1.04629867e-001 -8.42311904e-002 9.89600923e-003
      -6.45263419e-002 2.13692747e-002 -3.55094075e-001 -2.70000547e-001
      8.27783570e-002 -8.73766840e-002 -9.96766910e-002 -3.17071497e-001
      -2.79868662e-001 -1.71517804e-001 -7.87024796e-002
      -2.01769158e-001 1.02183588e-001 -1.23981118e-001 -1.72910005e-001
      -2.13901415e-001 -2.03921169e-001 -1.16327338e-001 1.56346098e-001
      1.47530928e-001 2.52190918e-001 -2.02060342e-002 1.48380533e-001
      -2.62850765e-002 -1.22234143e-001 -5.15055992e-002 2.13424154e-002
      4.66115996e-002 1.70614913e-001</_></support_vectors>
  <decision_functions>
    <_>
      <sv_count>1</sv_count>
      <rho>-2.7417704136746925e+000</rho>
      <alpha>
        1.</alpha>
      <index>
        0</index></_></decision_functions></my_svm>
</opencv_storage>
